543 10
</s> 0.034019 -0.035166 -0.031175 0.048420 -0.033887 0.036798 0.044821 -0.013242 0.015345 -0.025024 
in -0.009637 0.009349 -0.024325 -0.029454 0.022814 -0.037802 0.045988 0.033580 -0.014484 0.036493 
to 0.029019 -0.043967 0.007167 0.040383 0.040162 -0.009042 0.032769 -0.017894 -0.014774 0.058006 
for 0.029335 0.020231 -0.025097 0.046739 -0.019218 0.024663 0.004056 0.002721 0.047990 -0.035922 
of 0.039752 0.003919 0.020888 0.028769 -0.019867 0.001342 -0.000205 0.024632 -0.033358 -0.027665 
the -0.029593 0.034107 -0.047573 0.045559 -0.009454 -0.010955 -0.004903 -0.003613 0.013166 -0.041548 
on -0.016315 0.002275 0.020456 -0.016095 0.006987 0.009698 0.006299 0.027890 -0.016245 0.033448 
and 0.026500 -0.036736 -0.018497 -0.003652 -0.046483 -0.012101 0.003104 0.042571 0.009788 -0.010178 
a -0.022014 0.000241 0.033258 0.040208 0.002484 0.021713 -0.001027 -0.028978 -0.040171 0.037931 
The 0.006133 0.002247 -0.023513 -0.031217 -0.021510 -0.041681 -0.028431 0.033217 0.049827 0.013486 
after -0.004137 -0.043396 -0.002481 -0.038897 0.035414 -0.005180 0.003073 -0.048838 -0.001723 0.028629 
as 0.012698 0.032219 0.015736 -0.021669 0.016236 0.033232 -0.042172 -0.049282 -0.048007 -0.001244 
Google -0.012541 -0.009632 0.041689 0.038013 -0.038718 -0.040224 -0.023582 0.034716 0.039508 0.032473 
New 0.001426 0.014291 0.011029 -0.023631 -0.049614 -0.014677 -0.005964 -0.028719 0.042358 -0.011516 
with 0.045223 -0.004788 0.013781 -0.008251 0.006680 -0.032862 -0.024180 -0.040252 -0.038233 0.000820 
at 0.041489 -0.035304 -0.007706 0.018328 0.029611 -0.032842 0.010149 -0.039851 -0.039628 0.043122 
over 0.013571 -0.008692 -0.049143 0.043675 -0.000357 0.020312 -0.005497 0.034703 -0.010395 0.007289 
new 0.021962 -0.024624 0.048293 0.015798 0.048101 0.045102 0.015999 0.048871 -0.038050 0.030737 
- -0.035496 -0.008653 -0.015456 0.001141 -0.016838 -0.012176 0.026057 -0.022565 -0.016394 -0.046247 
from 0.010697 -0.048254 0.042542 0.032957 0.029341 0.031665 -0.028908 0.037322 -0.000165 0.008511 
is -0.048360 0.022106 -0.040844 0.041736 -0.033005 -0.021586 0.030321 0.025853 0.036117 -0.025951 
report -0.025136 0.008437 -0.024852 0.008645 0.048908 -0.034101 -0.022734 -0.010975 0.040837 -0.037095 
says -0.036277 0.031295 0.030102 -0.045563 0.049574 -0.040546 -0.001466 -0.034477 -0.041325 0.039604 
U.S. 0.030885 0.008805 -0.022549 0.043186 -0.007004 -0.015970 0.032591 -0.031079 0.048694 -0.016628 
tax -0.033990 -0.005030 -0.031777 0.019924 -0.034927 0.000963 -0.007791 -0.001571 0.028788 -0.048972 
by -0.009906 -0.002264 0.022970 -0.030950 0.012947 -0.035192 0.048624 0.001522 -0.044104 0.001639 
FDA -0.034911 0.051218 -0.013900 0.032235 0.007140 0.028185 0.043632 0.007223 -0.001868 0.037418 
In -0.039056 -0.043154 -0.050578 0.036786 0.020976 0.038898 -0.005855 0.021407 -0.025355 -0.028737 
Twitter 0.049896 -0.042143 0.018721 0.036106 -0.028316 -0.043108 -0.010037 -0.034565 -0.000360 -0.042785 
India -0.028220 0.014235 0.038854 -0.003008 0.023681 0.022705 -0.046012 0.046557 0.039915 0.040173 
2 0.001477 0.009968 -0.049141 -0.021206 0.036515 -0.043772 0.003040 -0.020851 0.013407 0.020891 
back 0.034325 -0.027222 0.037901 0.034381 -0.011918 0.043717 -0.015534 0.002572 -0.034269 -0.017612 
who 0.011247 -0.024536 -0.037320 0.018291 -0.002803 0.037267 -0.051618 0.029574 -0.024924 0.030677 
case -0.020219 0.013212 0.013590 -0.034824 0.024504 -0.008540 -0.010513 0.014471 0.044996 0.020237 
star 0.013753 0.043650 -0.037773 0.029848 0.018056 0.017599 0.039895 -0.045666 -0.036676 -0.004957 
A 0.002338 0.024395 0.041434 -0.007943 0.024364 -0.020588 0.003997 0.008148 -0.012322 0.038999 
World -0.000642 -0.003715 0.017569 -0.039567 -0.034794 0.029476 0.035110 -0.038498 0.006866 0.026962 
off 0.048648 -0.005046 0.035936 -0.037917 -0.026825 -0.025411 -0.002094 0.033657 -0.004917 -0.025472 
be -0.021072 0.037007 -0.026732 0.037557 0.026396 0.016246 -0.043114 0.000950 0.046019 -0.022654 
out 0.026610 0.046191 0.001395 0.052246 0.018445 0.001929 -0.017282 -0.018350 0.017430 0.015956 
his 0.002674 0.044891 -0.034480 -0.020356 0.001734 -0.020136 0.021122 0.017964 -0.007549 0.033810 
West 0.027544 0.041292 0.029940 0.042450 0.007654 0.049848 0.016792 0.005178 -0.009160 0.039369 
Will -0.009872 0.027067 -0.028049 -0.024696 -0.017297 -0.021158 -0.005505 -0.014141 0.015922 -0.043728 
man 0.039307 -0.016463 -0.038644 -0.034190 0.011363 -0.013818 -0.049959 0.003096 -0.021364 0.012270 
With -0.021813 0.005438 -0.007823 -0.030990 0.008277 -0.015595 -0.039640 0.026105 -0.019254 -0.021287 
gets -0.014754 -0.028086 0.036078 0.017002 0.039326 -0.004430 0.020576 -0.004195 0.027061 0.006388 
classic 0.030772 -0.002245 0.004578 0.032706 -0.009811 0.001291 0.011871 0.013997 -0.012209 0.002320 
San 0.041996 0.045339 -0.004591 -0.039607 -0.043358 -0.048578 0.007457 0.012244 0.019809 0.030095 
Francisco -0.043024 -0.003383 0.035683 -0.018181 0.036847 -0.010605 -0.011946 -0.004994 0.038488 -0.015162 
To 0.044918 0.038670 0.040251 -0.017569 0.022008 0.037643 -0.010033 0.041907 0.020205 0.003692 
US 0.002699 0.047236 -0.012111 0.043349 0.035891 0.033312 0.028145 -0.000685 -0.030824 -0.010728 
State -0.041486 -0.031370 0.044849 -0.025753 -0.046486 0.019035 -0.032294 -0.029714 0.024328 0.009960 
not -0.030779 -0.004196 -0.032586 0.039662 0.020638 -0.048036 0.019254 -0.018197 0.009324 0.012809 
Why 0.016323 0.028022 -0.031231 0.047538 0.035288 0.042181 -0.022787 0.015205 -0.022410 -0.021990 
calorie 0.039045 0.026837 -0.026131 -0.034300 -0.004080 0.049616 -0.047203 -0.009590 0.021988 0.039251 
counts -0.015111 0.040487 -0.014009 0.009608 0.035551 0.002816 -0.038420 0.030155 -0.012406 0.013509 
menus -0.043951 -0.023671 0.040285 -0.032001 -0.001042 -0.041669 -0.025057 -0.033705 -0.015796 0.031705 
Rooney -0.047908 0.027421 0.010006 0.048676 -0.047412 0.027635 0.046110 0.047794 -0.033151 0.028032 
United -0.004220 0.046720 -0.014348 -0.003472 0.006489 -0.008468 0.005295 0.001629 0.012381 0.034369 
down -0.044486 -0.015588 0.009349 -0.046554 0.020528 -0.035177 0.016364 -0.017714 0.032986 0.038234 
Ham -0.026333 -0.008451 -0.000195 -0.004639 0.026388 0.000212 -0.049617 0.044364 -0.043377 0.017427 
shows 0.047194 0.006378 -0.012255 0.024298 -0.007754 -0.003787 -0.040681 0.030558 -0.024938 0.003890 
Senate 0.040282 0.006283 -0.000556 0.035404 -0.043708 -0.043806 -0.048010 0.034810 0.047904 -0.033276 
sales 0.035092 0.012217 0.019409 -0.040246 -0.028497 -0.020883 -0.045966 0.027139 -0.022009 -0.014306 
Page -0.023076 -0.029536 -0.049969 0.040779 -0.032312 0.039539 -0.002704 -0.005913 -0.029058 -0.023559 
CEO 0.003976 -0.002204 0.015007 0.013042 0.023282 0.019926 0.044576 0.040933 -0.041673 0.006318 
are -0.013033 -0.012224 0.009205 0.002782 0.045669 0.010365 0.007671 -0.014637 0.016542 -0.023324 
may 0.027218 0.017030 0.017711 0.050455 -0.017579 0.018433 -0.016490 0.006062 0.027597 -0.048054 
her 0.001254 0.041652 0.002012 0.024855 0.046931 0.043431 -0.006960 0.025155 0.002084 0.029433 
deal 0.016772 -0.028931 0.039535 -0.014449 0.019960 -0.031468 0.019010 0.038002 0.010132 -0.006756 
jobs 0.002963 0.011027 -0.026721 0.048923 0.049520 -0.034620 0.019565 0.040564 -0.009067 0.011164 
will -0.047577 0.038909 0.011711 -0.041709 0.001120 -0.020776 -0.040180 -0.008946 0.047407 0.022012 
rate -0.006236 -0.039022 0.022398 -0.023638 -0.023521 -0.034561 -0.012460 -0.005978 0.048159 -0.020956 
Calorie 0.044769 -0.010214 -0.006141 -0.024653 -0.017010 -0.003611 -0.036989 -0.023677 -0.041467 0.019114 
How 0.043820 -0.029271 0.025782 -0.027856 -0.037984 0.012980 -0.038760 0.044443 -0.025679 -0.018788 
April 0.022095 0.014652 -0.032334 -0.007169 0.033210 -0.003811 0.000625 -0.028321 -0.022366 0.001650 
takes -0.019828 0.012296 -0.021119 0.041639 -0.028810 0.041249 0.033357 0.020218 0.034929 -0.024178 
iPhone 0.024080 0.017908 -0.017422 -0.046373 0.001111 -0.038134 0.025071 0.009584 0.010905 0.029597 
all 0.013998 0.009634 0.013791 0.002975 0.039583 -0.002749 -0.041788 0.034039 0.046714 -0.018455 
Ireland -0.013864 -0.042952 -0.033945 -0.025457 -0.040884 -0.019369 -0.028497 -0.033251 0.022645 0.009666 
death 0.019128 0.006819 -0.028098 -0.013718 -0.027129 0.049828 -0.035575 0.001150 -0.017880 -0.015921 
Penelope -0.033190 0.006881 -0.048407 -0.003951 0.025242 -0.019413 0.036247 -0.016803 -0.034008 0.020764 
have -0.005990 -0.025737 -0.036189 -0.004283 -0.038763 0.045185 -0.007650 -0.011397 -0.005053 -0.035478 
killed 0.038828 -0.047340 -0.009304 -0.024648 0.043491 0.051206 0.034249 0.033610 0.041275 0.045857 
proposes 0.032920 -0.015616 -0.028773 -0.006385 0.010585 -0.027841 -0.035895 0.048926 -0.006782 0.047961 
he's -0.016307 -0.048460 -0.012457 0.011157 0.007425 0.044943 -0.005089 0.028858 -0.033400 -0.045710 
ready -0.027098 0.042383 0.027754 0.033993 0.028410 0.002274 0.047497 0.014439 -0.022479 0.006417 
Cup 0.039305 0.010485 -0.037095 0.010074 -0.041308 -0.020704 -0.010053 -0.034611 0.027396 0.028196 
final -0.014964 0.027069 -0.048684 0.008789 0.009052 0.019504 -0.007082 0.027360 -0.018301 0.027436 
charged 0.019610 0.039267 -0.036598 -0.020113 -0.015061 0.043727 0.003176 -0.034333 0.040724 -0.010064 
found 0.045879 0.043533 0.024454 0.011551 0.027829 -0.008351 -0.043150 -0.001870 0.009399 0.012612 
stop 0.008864 -0.032694 0.003055 -0.046499 -0.015112 -0.032696 -0.005726 0.022456 -0.012644 -0.008401 
win 0.015730 -0.005202 0.002375 -0.046207 0.027068 -0.011500 0.013077 0.046855 -0.036114 0.042501 
March 0.035868 -0.001228 -0.025301 -0.003793 0.034323 -0.003461 -0.040194 -0.016558 0.005895 0.027250 
Too -0.004760 0.032187 -0.030531 -0.036195 0.006876 -0.002087 -0.003055 -0.001304 0.018548 0.030006 
Fame 0.042887 0.014515 0.003511 0.043132 0.044305 -0.023340 -0.038166 -0.008017 -0.016155 -0.033450 
Larry -0.010156 0.046568 0.039706 -0.040751 0.007605 -0.033535 -0.045618 -0.025626 0.014222 -0.016432 
set 0.031595 -0.034417 0.034154 0.014251 0.001482 -0.046220 -0.042715 0.035613 -0.018768 -0.049688 
attack 0.018422 -0.020711 -0.026456 0.042771 -0.023904 0.042659 -0.003565 0.048733 -0.040874 -0.033898 
| 0.041097 0.038220 -0.008283 0.034104 0.004536 -0.040103 -0.002578 0.049530 -0.033694 -0.036999 
Party -0.001751 -0.013397 0.023947 0.049562 -0.028691 -0.027883 0.026381 0.023616 0.040969 -0.006668 
Coast -0.028418 0.039943 -0.002315 0.040969 -0.024795 -0.043119 -0.033300 0.039697 -0.000322 0.025427 
woman 0.045025 0.024764 -0.040751 0.038603 -0.046800 -0.016808 0.011584 -0.007350 -0.039160 0.026244 
guilty 0.042600 -0.001781 -0.006284 -0.021475 -0.000630 -0.008027 -0.040259 -0.033838 0.040813 0.028222 
TV -0.035417 -0.022041 0.042950 -0.034515 0.007957 0.001075 -0.019237 -0.034029 0.006007 -0.006792 
drug 0.038106 0.044664 0.038073 -0.041039 -0.036649 0.042675 0.025879 -0.011116 -0.016195 -0.048428 
Ivory 0.013579 -0.036944 0.011613 0.020790 -0.018180 0.036074 0.013501 -0.012160 -0.031888 -0.022532 
Fall -0.006805 0.036568 -0.023358 -0.045126 0.028041 -0.012240 -0.032683 0.039544 -0.011568 0.011600 
Man 0.011711 0.013021 -0.029681 -0.036235 0.014528 -0.044808 0.001175 0.047925 0.045149 0.031579 
Facebook -0.021572 0.022115 -0.022770 -0.027658 -0.029103 -0.018145 0.022065 -0.026928 -0.036027 0.006751 
On 0.029587 0.043649 -0.006307 -0.022282 0.036619 0.017086 -0.009423 -0.043310 -0.038429 -0.031003 
Proposed -0.019286 -0.030013 -0.007101 -0.001135 0.036744 -0.044755 0.017028 0.000625 -0.022931 -0.035526 
China -0.005105 -0.021353 -0.020401 0.018022 0.045615 0.011261 0.009372 0.006966 -0.020491 -0.023746 
keep -0.027785 -0.032730 0.006754 0.024614 0.047590 0.013554 0.032182 -0.004307 0.005105 -0.015007 
leads -0.031247 -0.029702 0.037593 0.021143 0.028773 -0.049614 0.004639 -0.014117 -0.034915 -0.047784 
Former -0.021752 0.013108 0.000617 -0.038307 0.006472 0.033588 0.023132 0.005698 0.022885 -0.025612 
up 0.006421 -0.031781 0.046321 -0.015384 0.004432 0.005886 -0.021578 -0.025484 0.021394 -0.013260 
fraud -0.009497 -0.036386 0.012148 0.007837 0.008682 0.006166 0.000381 -0.050823 -0.005989 0.013573 
Swaziland -0.033039 -0.027245 0.014451 0.021625 0.015283 -0.037720 -0.036303 0.021655 -0.000974 -0.048909 
serial 0.040860 0.044728 0.047774 0.043121 -0.036518 -0.024726 0.021121 -0.048122 -0.047504 -0.035916 
killer -0.039004 -0.048010 0.029269 0.034726 0.041602 -0.004452 -0.044362 -0.033764 -0.017625 0.048388 
7 -0.035957 -0.032438 -0.015361 -0.015535 -0.005861 0.007072 -0.031693 -0.031950 -0.040621 0.018153 
&amp; -0.000382 -0.037161 -0.000406 0.047939 -0.000369 -0.005393 -0.035523 0.023418 -0.008565 0.008992 
Cruz 0.026155 -0.002680 -0.019016 0.038653 0.018974 0.034167 0.018717 -0.037026 -0.003727 0.041371 
Hollywood 0.048389 0.015313 0.013078 0.030048 -0.021576 -0.048485 -0.020105 0.003014 0.014587 -0.007933 
This 0.043698 0.041880 0.023330 -0.040341 -0.045488 0.038403 0.013786 -0.026197 -0.044941 -0.017493 
week's 0.018531 -0.039396 0.035546 0.031764 0.013063 -0.039817 0.031056 0.005081 0.029069 -0.043327 
Study -0.011681 0.011423 0.003371 0.038674 0.035239 -0.033041 -0.015213 0.027709 -0.021709 0.024291 
Now 0.025359 -0.042130 0.006554 0.025585 0.006705 0.044579 0.019568 -0.041653 -0.013091 -0.014360 
water -0.013134 -0.010625 -0.040037 0.024290 0.038915 -0.047965 -0.022407 0.004107 0.037941 -0.027908 
Japan -0.020584 -0.000357 0.045089 0.022778 -0.010225 -0.023144 0.032209 0.027239 -0.005403 0.037292 
plant -0.026987 -0.006006 -0.017919 0.023562 0.027397 -0.035393 -0.002672 0.033418 -0.022876 0.026321 
into 0.008526 -0.020564 0.007255 0.015771 -0.035684 -0.040820 -0.006176 -0.006206 -0.012015 0.048065 
hopes -0.024889 -0.024505 -0.046852 0.011805 -0.006905 0.011040 -0.007251 -0.030535 0.006314 0.015054 
prove -0.034173 0.041936 0.027734 0.049277 -0.024768 0.002221 0.011746 -0.049210 -0.033706 -0.001638 
hat-trick 0.022934 0.007755 -0.000719 0.031075 0.021731 0.011018 0.024233 0.009630 0.043914 -0.008134 
Music -0.037566 -0.030890 0.042328 0.020294 0.006390 0.002719 -0.030236 0.008720 0.039421 0.015161 
health 0.029347 -0.046528 -0.007270 0.017771 0.005925 -0.014844 -0.023446 -0.009504 -0.017504 0.021624 
Sri -0.033483 -0.006479 0.027894 0.034585 -0.000856 0.046737 0.042987 -0.000246 -0.018284 0.050249 
2011 0.024570 0.032373 -0.038053 0.034144 -0.028530 0.009489 0.018908 0.006490 0.035851 -0.000716 
it -0.042547 0.025338 0.020530 0.039501 0.026506 0.016152 0.049312 0.013851 -0.004027 -0.022806 
kids 0.045010 -0.014362 -0.026743 -0.038301 -0.014910 0.011590 -0.015700 0.007441 -0.008598 -0.032843 
due -0.044747 0.049797 0.009711 -0.020881 -0.044070 0.007106 -0.009568 -0.040515 -0.041036 0.003643 
iPad 0.002156 -0.046433 -0.049212 0.007308 0.022384 -0.022875 0.008963 -0.029072 0.025077 0.002715 
Chelsea -0.032379 0.002355 0.031910 0.034563 -0.017704 -0.027846 -0.032382 -0.046582 0.046175 -0.000602 
best -0.025994 -0.029905 -0.002695 -0.049738 0.034703 0.007493 0.045071 -0.004633 -0.025951 0.005859 
so 0.029780 0.016179 0.002273 0.018729 -0.021153 -0.039742 -0.017282 0.026930 -0.002600 0.026196 
hits 0.023420 0.020375 0.028516 -0.031437 0.036687 0.027517 -0.003696 -0.021908 0.017000 0.035606 
million 0.015656 -0.017238 -0.037319 0.005392 -0.008121 -0.039862 -0.002790 -0.004305 0.016641 -0.035537 
SD 0.047360 0.040681 -0.036880 -0.007004 0.044919 -0.023335 -0.006595 -0.003872 0.049500 0.032629 
Guard 0.015094 0.016726 0.022901 -0.035078 0.051125 -0.043271 -0.036080 -0.022766 0.022752 0.055393 
Rates 0.025973 -0.015852 0.042551 -0.009946 -0.016350 0.005172 0.003089 0.012172 0.048498 -0.037868 
oil -0.040652 -0.044983 0.005691 0.023572 -0.012559 0.026492 0.017015 0.018478 -0.045401 -0.009241 
Talks -0.036476 0.026970 -0.021269 -0.042370 -0.001847 -0.006579 -0.015862 -0.044510 -0.041112 0.002495 
City 0.002272 0.030403 -0.025551 -0.021410 -0.047100 -0.011104 -0.028140 0.025700 -0.005161 -0.047297 
could -0.042450 0.020423 -0.031516 0.003690 0.015434 0.028039 0.047050 -0.028430 0.019452 0.032703 
York -0.043009 0.018192 -0.046839 -0.032918 0.002212 -0.018612 0.048559 -0.020397 -0.037085 0.034097 
East -0.029534 0.040419 -0.038784 -0.039972 0.015309 -0.001917 -0.046796 -0.019122 -0.026946 -0.041708 
Tea -0.003858 -0.018706 0.022728 -0.008329 0.000315 0.043945 -0.017793 0.049522 0.046959 0.005772 
2012 0.031968 0.025248 0.011589 0.040613 -0.041959 -0.026875 0.020264 -0.010472 -0.001450 -0.034011 
Obama 0.008064 -0.019399 -0.030440 0.035065 0.004061 0.000835 -0.019985 0.034189 -0.037996 -0.017847 
study 0.025558 0.030937 0.017816 -0.035552 0.040090 -0.029199 -0.035584 0.026762 -0.008444 -0.006936 
match -0.044965 -0.030439 0.041871 0.015144 0.035954 -0.010392 -0.033389 -0.027292 0.026647 0.044401 
pleads -0.034219 0.009111 0.028827 -0.000423 0.018345 0.009033 0.025090 -0.021210 -0.001385 -0.022097 
evasion 0.050288 -0.043754 0.020464 0.027655 -0.016785 0.033209 0.006950 0.045484 0.048006 -0.040775 
low -0.029473 -0.039377 0.021789 0.012839 -0.039705 0.038583 0.030058 -0.025693 0.042386 -0.010746 
Show 0.038996 -0.034272 -0.019401 -0.020744 -0.010574 -0.032515 0.001104 0.039312 -0.008241 0.015740 
Post -0.037453 -0.025585 0.014564 -0.003829 0.039391 -0.016429 0.027880 0.005423 0.036235 0.021710 
Washington 0.049741 -0.036143 -0.035407 -0.018728 0.016487 -0.025182 -0.044697 0.014146 -0.026039 -0.037647 
dress -0.044594 0.008912 -0.040987 -0.036192 0.038547 -0.036304 -0.005565 -0.010622 0.023334 0.015178 
No 0.036653 -0.043604 0.027176 -0.020760 -0.040499 0.040938 -0.000839 -0.037595 0.020886 -0.032238 
that -0.042835 0.039725 0.034451 -0.028553 -0.006691 0.041706 -0.045993 -0.022361 0.020027 -0.009704 
Mars -0.049326 0.047319 -0.021978 -0.022330 -0.025501 0.029322 0.026397 0.045215 -0.033359 0.038460 
4 0.042307 -0.044398 -0.011840 0.007655 -0.034662 -0.003151 0.040029 -0.027205 0.029002 0.019683 
dead 0.009389 0.042522 0.036732 0.027302 -0.035080 -0.033177 0.015187 -0.000478 -0.005566 0.040344 
near -0.031963 -0.003095 -0.035820 -0.039929 0.005933 0.047440 0.046353 -0.049763 -0.039089 -0.018268 
It's -0.033687 -0.024303 0.035465 0.007918 -0.049959 -0.045659 0.035101 0.018163 -0.046949 -0.024458 
For -0.010831 0.008701 -0.010995 -0.003969 -0.006233 -0.022920 0.047905 -0.023548 0.041834 0.016539 
You 0.041327 -0.033272 0.042850 -0.020297 -0.007278 0.025338 -0.007924 -0.021806 0.027948 -0.032155 
beat 0.032409 0.008519 0.047867 -0.036631 -0.008274 -0.035174 -0.017805 -0.036165 0.020037 -0.009560 
Delays -0.014688 -0.001948 0.003977 0.038112 -0.010930 0.002002 -0.007707 0.024336 0.039146 -0.002644 
Jobless 0.005577 0.031665 0.020313 -0.009921 -0.007759 0.026441 0.010771 0.008949 -0.003368 -0.035433 
falls 0.007514 0.043659 0.039549 0.004089 0.025722 0.021595 0.035013 0.025832 0.018660 0.004525 
Teacher -0.004466 0.002782 -0.039122 0.010206 0.025428 -0.023516 -0.039021 -0.006743 0.043070 0.035059 
Over 0.019241 0.009106 -0.051181 -0.001890 0.040473 -0.029860 0.044387 0.014034 0.005445 0.017647 
Art -0.040141 0.023192 -0.035068 0.032397 0.028383 -0.040980 -0.043154 0.001482 -0.037593 0.005557 
Of 0.003081 -0.027476 -0.019224 -0.037046 -0.009586 -0.046904 -0.041244 0.015329 0.011526 0.016067 
Young 0.025729 -0.023583 -0.046835 0.014551 -0.008034 0.000647 0.043790 0.044027 0.017180 0.000779 
Proposes -0.019570 0.013358 -0.023292 0.041899 -0.006631 0.006441 -0.039350 0.032411 -0.014517 0.012730 
Counts 0.049223 0.003818 -0.046496 0.004625 0.040728 0.047042 -0.009037 0.014851 0.008485 -0.028161 
Menus 0.008908 -0.047484 0.013705 0.005554 0.000446 0.025168 0.013326 -0.016803 -0.032499 0.018197 
Is 0.037761 0.043152 -0.002113 0.026217 0.047593 -0.043442 -0.008553 0.017396 -0.003521 0.043114 
Microsoft 0.025553 -0.014130 0.019259 0.019537 0.031372 -0.030370 0.003994 -0.009116 -0.049011 0.017633 
Budget 0.013205 -0.029058 0.008461 -0.031056 -0.014722 -0.038900 0.032217 0.006520 0.041259 0.008511 
Motion -0.045110 0.004059 -0.027060 -0.022069 0.017160 0.019614 -0.037485 0.045170 0.047390 -0.022893 
break 0.024676 -0.008882 -0.008263 -0.003619 -0.035708 0.051075 -0.037839 -0.012645 0.048011 0.023966 
city 0.034565 -0.017862 -0.019876 0.032328 -0.004237 0.050714 0.012070 0.030265 0.032938 0.048636 
fracas 0.043270 0.018778 0.006294 0.005322 -0.044133 0.034089 0.016957 0.035378 -0.012247 0.038124 
NCAA 0.037327 0.014513 -0.041962 0.041073 -0.046726 -0.017737 0.041468 0.043686 0.033268 -0.006785 
but 0.033104 -0.005666 -0.003182 -0.037917 -0.038679 -0.027313 0.019673 -0.004385 -0.044841 -0.042775 
debut 0.048761 -0.022908 0.015745 0.019153 0.043957 0.047658 -0.038182 -0.025189 -0.039229 0.002855 
London 0.025066 0.021336 0.035190 -0.030241 -0.037231 -0.026995 -0.009439 -0.043547 0.004252 0.010853 
Libyan 0.040337 -0.016711 -0.017237 -0.017923 0.003857 -0.037616 0.025897 0.024210 0.024516 -0.005146 
economy 0.048360 -0.028548 0.048595 0.044365 -0.032450 0.022059 0.040810 -0.028306 -0.025078 -0.015730 
adds 0.016550 0.026929 -0.028191 0.029410 -0.021002 0.021558 -0.020984 -0.021302 -0.015548 -0.016802 
216,000 -0.000274 -0.024189 -0.030505 -0.040621 0.018777 -0.020794 -0.008916 -0.026268 -0.031049 -0.014802 
parents -0.033467 0.019226 -0.039255 -0.044424 0.024309 0.021494 0.035859 -0.029015 -0.013300 0.019050 
seven 0.033001 -0.048382 -0.039888 -0.014818 -0.021941 0.023196 -0.033805 0.047954 -0.014642 0.004479 
Have 0.039797 0.035162 0.007736 0.005719 -0.037111 0.007565 -0.011236 -0.000205 -0.038449 -0.047278 
women -0.040780 0.037089 -0.046895 -0.015366 -0.033076 -0.002657 -0.021791 -0.000982 -0.035117 0.037136 
ex-minister 0.014971 0.010076 -0.041742 -0.001508 0.019978 0.037675 -0.001494 -0.038188 -0.044950 0.044484 
Sony -0.024224 -0.016739 -0.037977 -0.006732 0.000842 -0.041688 0.031501 -0.025722 0.051229 -0.000795 
Manchester 0.012948 0.016796 0.026907 0.022950 0.007883 -0.029962 0.040971 -0.040384 0.009464 0.046994 
president -0.026979 0.002997 0.048312 -0.047438 -0.004129 0.008282 -0.016988 0.037713 0.023696 -0.002279 
sentenced 0.020164 0.035472 -0.026110 -0.047466 -0.023553 -0.016060 0.043677 0.017885 0.043072 -0.017094 
App -0.017531 -0.023565 0.023947 -0.029217 -0.002157 -0.008640 0.035006 0.022561 -0.035807 0.016609 
Windows -0.015150 -0.021548 -0.039425 0.035453 -0.026392 0.018656 -0.010222 -0.012594 0.038255 -0.044571 
Phone -0.025751 -0.041578 0.004605 -0.034815 0.016234 -0.013210 -0.047602 -0.016811 0.003997 0.048938 
film -0.042120 0.001599 0.029395 0.035137 0.039478 0.040415 0.029741 0.017937 0.031382 -0.035145 
still 0.013307 0.038981 -0.008845 0.025626 0.016976 -0.027875 0.002001 -0.028214 -0.028848 0.013789 
arrested -0.028622 0.013166 0.007569 0.020461 0.007838 -0.014284 -0.007234 0.047981 -0.036840 -0.027834 
Back 0.015113 0.003103 -0.005168 -0.009867 -0.010391 0.013716 -0.005954 -0.048378 0.046640 0.031222 
talks 0.001059 0.032213 0.038534 0.002408 0.015036 -0.020662 0.042712 0.038974 0.017612 0.007879 
call 0.046662 0.046441 -0.019945 -0.010386 -0.011820 0.001666 0.048846 -0.009929 -0.037490 0.034817 
Unemployment -0.021795 0.025120 -0.048896 0.010001 0.025244 0.026707 -0.024677 0.007202 0.038782 -0.007549 
boosts 0.004611 -0.015604 -0.034245 0.027637 -0.019492 0.044274 -0.040015 0.035367 0.012725 0.027919 
Cancer 0.021927 -0.014006 0.024723 0.033306 0.001620 -0.001313 -0.036667 0.028793 -0.041011 0.004462 
Not -0.038672 -0.045608 -0.015044 -0.009408 -0.029915 0.023609 0.039212 -0.010882 0.019301 -0.014009 
two-year -0.003818 -0.046919 0.021309 -0.015115 -0.012968 0.029576 0.026353 0.020159 0.050976 0.018603 
Life 0.009497 -0.049130 0.032268 0.024709 0.005073 0.031445 -0.045538 0.022205 0.042444 0.048367 
can 0.044188 -0.001010 0.030816 0.003834 -0.018134 0.048042 0.007462 0.034528 0.024986 -0.004599 
suspended -0.004769 -0.020329 -0.011595 -0.048001 -0.020016 0.024876 0.039072 0.045198 -0.040287 -0.032137 
""Mad -0.016848 0.022739 0.015040 0.047772 0.018947 -0.042068 -0.006255 0.028232 -0.002866 0.014193 
Men"" 0.034313 0.034341 -0.040417 0.038444 0.036795 -0.035629 -0.018307 0.007478 0.001243 0.045109 
Guest -0.006666 0.001904 -0.013304 0.046301 -0.002441 -0.002290 0.029880 -0.032786 -0.014564 0.002806 
lineups -0.050331 -0.001394 0.041496 0.022537 0.046355 0.025072 0.026190 -0.041502 0.029271 0.040505 
Sunday -0.015506 -0.042174 -0.015968 0.044131 0.004039 -0.012114 0.025865 0.032675 0.017927 -0.026732 
news 0.009149 -0.028620 -0.001664 -0.048619 -0.028893 -0.031584 0.017168 -0.010794 0.021322 -0.030338 
radiation 0.033046 -0.000464 -0.049777 -0.041754 -0.024982 -0.001007 0.040276 -0.044471 -0.034305 -0.003395 
bomb -0.026655 0.043026 0.041317 0.000181 0.016794 0.045959 -0.036397 -0.017566 0.029418 -0.022872 
James 0.017548 -0.045661 0.006808 -0.016611 -0.013322 0.009696 0.047641 0.039848 0.033833 0.049490 
top -0.002049 -0.040163 -0.039967 0.006312 0.045493 -0.014825 -0.010365 -0.032085 -0.030776 -0.011324 
After -0.001989 -0.024626 -0.046103 0.043959 -0.031574 -0.045347 0.045346 0.006587 0.030113 0.026034 
face -0.020506 0.022251 -0.021374 -0.040163 0.047031 0.035522 0.034246 0.046710 -0.003388 0.055230 
Radioactive 0.021033 0.011083 -0.039060 0.007446 -0.010692 0.040212 0.025069 -0.043443 0.041518 0.031856 
crippled -0.031744 -0.040714 -0.017590 0.043087 -0.007200 -0.017909 0.042810 -0.023181 0.019660 -0.049283 
getting 0.012182 0.046157 -0.039373 -0.023242 -0.007803 -0.030970 0.024813 0.023503 0.007026 0.010160 
founder -0.045300 0.037388 -0.024848 -0.009219 0.012952 0.006354 -0.033140 -0.004048 0.027909 0.033385 
lead -0.007826 -0.033088 0.038472 -0.042027 -0.040900 0.017902 0.045569 0.010800 -0.026201 0.047691 
Medicare 0.019598 -0.002405 0.040705 -0.038273 -0.018200 -0.041026 0.004805 -0.008430 -0.012065 0.024615 
Industry 0.017284 0.025791 0.016811 -0.033844 -0.020150 0.027863 0.018876 0.018059 0.048596 -0.003588 
Force 0.013764 0.027750 -0.001236 0.027125 0.015911 0.049355 -0.009421 0.009803 -0.014996 -0.035013 
Amazon -0.015327 -0.049232 -0.014456 0.001922 0.021451 0.022743 0.048916 -0.006790 -0.015270 0.005861 
Steve -0.031538 0.007861 0.005864 0.017979 0.044331 -0.043502 0.012367 0.007215 0.015972 -0.046799 
ratings 0.010858 0.023814 0.030030 -0.034463 -0.046420 -0.000533 -0.009590 -0.049805 -0.002598 0.048277 
against 0.012743 0.024760 -0.010982 -0.039223 -0.003929 -0.002681 -0.024606 -0.048747 -0.027275 0.045508 
Lanka 0.023073 0.042257 0.021620 -0.004384 -0.025160 -0.049228 0.022352 -0.007417 -0.021304 0.031120 
launch -0.017290 -0.039649 0.003751 0.049252 0.005436 0.049264 0.003542 0.028833 0.006367 0.003817 
2,000-year-old 0.023669 0.029215 0.022813 0.002713 0.017278 -0.027428 -0.036490 -0.009944 0.042385 -0.016116 
BP -0.029917 0.044986 -0.006808 0.029446 0.011840 0.029934 -0.001286 -0.036897 -0.020464 -0.001112 
don't 0.042091 -0.039852 -0.012503 0.023214 -0.039837 0.028988 0.008457 0.001605 -0.001793 0.000085 
like 0.018476 -0.022510 0.005820 -0.045872 0.047693 -0.032937 0.023397 -0.024712 0.015862 0.024244 
seeing 0.015504 -0.025814 0.033816 0.029992 0.040728 0.002350 -0.010721 -0.040507 -0.011021 0.012525 
subprime -0.023984 0.031293 -0.043344 0.017230 0.027590 0.031829 -0.046023 -0.018969 0.044353 -0.042740 
mess 0.003863 -0.040062 0.019895 0.039598 0.032904 -0.023870 -0.042523 0.034166 -0.034139 0.013599 
China's -0.041236 0.024673 -0.027932 0.025757 -0.012168 0.048426 -0.029810 -0.023381 0.022721 -0.036712 
rise -0.023950 -0.022279 -0.049357 -0.011546 0.023332 0.003754 0.031282 -0.009655 0.021643 0.042884 
Do 0.038194 -0.031916 -0.046247 0.032869 -0.012937 0.013545 0.033652 0.016841 0.034015 0.035831 
At-Home 0.018612 0.043771 0.022830 0.026103 0.008649 -0.035893 0.037864 0.015983 -0.006762 -0.019829 
Genetic -0.040033 0.026950 -0.045964 -0.005048 0.047062 0.048566 0.023843 -0.002322 0.036178 -0.016375 
Tests -0.038872 -0.040332 0.046921 -0.017448 -0.046423 0.007801 0.048897 0.049765 0.011478 -0.039412 
Tell -0.012344 0.050512 -0.023534 -0.040027 0.045420 0.025391 0.034228 0.004857 -0.019960 -0.017842 
Much 0.008334 0.035220 -0.034403 0.050574 0.040350 -0.017173 -0.034894 0.015733 -0.045823 0.019412 
Explain 0.010157 -0.014729 -0.047821 -0.025437 -0.029203 0.009066 0.046154 0.007023 -0.009178 0.033121 
Little? 0.016861 0.019855 0.012971 -0.034172 0.040163 0.003324 0.023661 0.005470 0.021232 -0.023714 
nuclear -0.021046 -0.003999 -0.022047 0.006458 -0.020143 -0.028568 0.041609 0.023506 0.045103 -0.000395 
Rodman 0.027635 -0.006363 -0.014113 -0.033103 0.013468 0.039973 0.039768 0.034711 -0.040696 0.031957 
Hall -0.020420 0.015939 0.023200 -0.007136 -0.017490 0.023546 -0.001574 -0.021289 -0.022044 0.037081 
take -0.016862 -0.016951 0.003020 0.046954 0.042970 0.027385 -0.041543 -0.030006 0.022908 -0.017679 
starting -0.030889 0.011016 -0.026647 -0.025097 0.023207 0.007779 0.035926 -0.004352 -0.016367 0.029356 
Monday 0.048762 -0.036443 0.013815 0.004315 0.014233 0.031838 -0.046848 0.020675 0.016713 0.011536 
Web -0.049642 -0.041873 -0.029372 -0.036760 -0.027656 0.004952 0.027503 0.037750 0.020204 0.028321 
tour 0.032739 -0.012200 0.023690 -0.048107 -0.011699 0.006526 -0.023338 -0.044645 0.016989 0.043794 
18 -0.016852 -0.036304 -0.049779 -0.043824 -0.014705 0.004230 -0.047415 -0.036441 0.049903 -0.033245 
30 -0.030223 0.016852 0.025355 0.031921 -0.033196 0.012727 -0.010569 -0.005441 -0.012737 0.033110 
Years -0.006697 -0.037848 0.001735 -0.030683 -0.007289 -0.041881 0.016004 -0.045070 -0.034941 0.044950 
More 0.045864 0.038068 -0.010690 -0.032963 0.031498 -0.048612 -0.022114 -0.035004 -0.027995 -0.038208 
Stars 0.041893 0.008245 -0.001888 -0.023165 -0.008485 0.012221 -0.037778 0.037548 0.014873 0.012641 
bill 0.026754 -0.028249 -0.042495 -0.033580 0.047322 -0.045275 -0.029784 0.034378 0.020221 -0.004834 
David 0.019923 0.016930 -0.036871 0.018585 -0.001960 -0.027769 -0.007760 0.005666 -0.036259 -0.007090 
American -0.038325 0.003799 0.041660 -0.043904 -0.047133 -0.008349 0.012027 -0.048993 0.044162 -0.040030 
bankruptcy 0.018769 -0.018263 -0.004423 0.039543 -0.042229 0.033107 0.028772 -0.013422 -0.030830 0.044716 
more -0.011617 0.044322 0.019175 0.022617 -0.004520 -0.010782 -0.034205 0.030840 0.029269 -0.032935 
Barbour's 0.027427 0.026821 0.026880 0.034986 0.042724 0.042588 -0.048123 -0.039819 -0.018818 0.020844 
wife 0.044513 -0.037607 0.002159 0.006950 0.035458 0.015210 0.033150 0.017323 -0.037406 -0.048440 
shortage 0.041627 -0.046174 -0.010468 0.011497 -0.021565 0.014960 -0.026027 0.015072 0.044107 0.029379 
Against 0.036192 0.001494 0.048948 0.010743 -0.019444 0.041014 -0.027933 -0.013199 -0.046097 0.034132 
can't -0.029645 -0.010070 0.003325 0.045127 0.008452 -0.031401 0.014703 -0.042157 0.033520 0.044132 
Has 0.028863 -0.028319 -0.007231 -0.004946 0.015866 -0.020013 -0.042265 -0.018525 0.027566 0.017185 
Porn 0.004804 -0.004735 0.021778 -0.013154 0.039205 -0.044879 -0.040068 -0.047217 -0.002859 -0.035697 
Memphis -0.020271 -0.033984 0.007977 -0.009985 0.005437 -0.032642 -0.010859 0.005407 0.018394 -0.022636 
fund 0.040921 -0.018720 -0.010245 0.027344 0.019287 0.037324 -0.044057 -0.018511 -0.010790 0.026931 
England 0.040964 -0.006624 -0.048585 -0.003662 0.034532 0.028923 0.045437 0.008614 0.024212 -0.006037 
Ben 0.037398 -0.049457 0.024894 -0.010171 -0.003946 -0.001202 0.005239 -0.027998 0.021549 0.045426 
Measure 0.000158 0.016521 -0.008487 -0.046554 0.041024 -0.002250 -0.048896 0.037466 0.029257 0.013188 
banned 0.007859 -0.036537 0.012995 0.012815 0.024746 -0.016667 0.018803 -0.036333 -0.004144 0.021478 
Vogue -0.033894 -0.003119 -0.048957 0.047932 0.026718 0.023153 -0.004860 0.043860 0.017200 -0.001714 
(PHOTOS) -0.022609 -0.041582 0.030615 -0.032078 0.003004 -0.015765 0.043846 0.024256 0.036481 -0.011420 
sex 0.036458 0.028025 -0.011253 -0.045241 -0.043494 -0.044975 -0.031517 -0.007295 0.021972 0.006411 
Some -0.000760 0.028593 0.006838 0.043530 0.018431 -0.002620 0.005487 -0.034814 -0.011912 0.026962 
Gadhafi's -0.003592 0.018596 -0.044908 -0.007185 -0.024438 0.041582 0.029858 -0.030222 -0.030922 -0.032396 
gas 0.034994 0.041074 -0.046851 0.009161 0.020485 0.036718 -0.027876 -0.036972 -0.012238 -0.032457 
Europe -0.000264 0.036751 0.027227 -0.043355 0.040889 -0.047359 -0.017274 -0.047341 -0.041673 0.005790 
become -0.020895 -0.043733 0.029231 -0.005416 0.013696 -0.002068 -0.043409 -0.024837 0.035455 -0.038820 
prosecutor -0.030800 -0.044669 -0.048062 0.015597 -0.044419 -0.008187 -0.026454 -0.024055 -0.011846 -0.014098 
took 0.018821 0.003238 0.003072 0.038466 -0.042539 0.014140 0.022224 -0.002620 -0.005183 -0.012003 
Bruno 0.022755 -0.032287 -0.017066 0.012006 -0.044354 0.003807 0.023577 -0.019148 0.049404 -0.047081 
Paris -0.035614 0.045435 -0.012305 0.034572 0.038562 -0.003790 0.000040 -0.009950 0.011632 0.002036 
Hilton 0.010209 -0.038623 -0.048704 -0.034460 -0.000408 -0.023069 0.034468 -0.015014 -0.040366 0.050559 
being -0.000758 -0.011200 -0.008627 0.028263 -0.047135 0.007721 0.044219 -0.034334 0.019302 -0.002933 
crack 0.034170 0.011420 0.002817 0.002187 -0.014625 0.018567 0.042389 0.046139 0.024467 0.043061 
shot 0.022425 0.013841 0.044871 -0.030038 0.001193 0.016346 -0.002720 -0.013556 -0.047513 -0.042118 
creates -0.032201 0.020619 0.036319 0.018458 -0.039201 -0.008343 0.022275 0.001846 0.038938 -0.007128 
row -0.027483 0.004027 -0.025029 -0.025875 0.030852 -0.045342 -0.039579 0.028011 0.002315 -0.043396 
Pour -0.000147 -0.009338 0.021751 -0.045053 -0.006083 0.008934 -0.000843 -0.003375 -0.016331 0.028726 
Syrup -0.037638 0.032194 -0.010360 -0.025645 0.045340 -0.044452 0.006268 -0.030495 0.049524 -0.006962 
Good -0.036001 0.008182 0.014613 0.035202 -0.040906 0.018644 -0.015287 -0.007146 -0.004033 0.035602 
French -0.013956 0.042155 0.020700 0.015690 0.024473 -0.000052 0.021224 0.033426 -0.012428 0.012858 
Movie -0.017519 -0.027827 0.043318 -0.030466 0.003820 -0.025934 -0.028558 -0.022574 0.032805 -0.013321 
Acer 0.044636 0.030150 -0.043502 -0.019785 0.024532 0.048631 -0.007866 0.024844 -0.023893 0.001389 
pledges 0.041861 -0.011804 -0.009108 -0.047386 0.013457 0.006021 0.030992 0.036026 0.036943 0.027968 
efforts 0.013098 -0.010768 -0.000386 0.009518 -0.040682 -0.007656 0.010248 0.032839 0.003738 0.014602 
rebound 0.035488 -0.039479 -0.002611 -0.043049 -0.006606 0.035062 -0.000465 -0.043078 0.013854 -0.022912 
amid 0.032916 0.031589 -0.007742 -0.000790 -0.001741 -0.014892 0.026253 -0.005419 0.011194 -0.027693 
slowing 0.000855 -0.009991 -0.026548 0.049609 0.005735 0.041955 -0.034334 -0.045242 -0.023777 0.010826 
we -0.016503 0.024728 0.044308 -0.042594 -0.017071 -0.022239 0.003761 0.046401 -0.011198 0.032359 
workout -0.010567 0.043418 -0.041340 -0.038957 -0.027369 0.016451 -0.003854 0.008730 -0.046495 0.041231 
video 0.015883 0.034927 -0.020779 0.045802 -0.018840 0.010465 0.012725 -0.049695 0.038972 -0.045593 
Republicans 0.010888 0.033146 0.024923 -0.024672 0.035933 0.011997 -0.002394 0.020658 -0.024717 -0.029062 
Strategic -0.024109 0.021443 -0.002594 -0.034198 -0.020862 0.021477 0.014630 -0.048565 0.025477 -0.002358 
theaters -0.035134 0.014101 0.034717 0.040317 0.050023 -0.040547 -0.033184 -0.034531 -0.022291 0.034192 
this -0.042746 0.001614 0.030464 0.018018 -0.038673 0.003403 -0.022465 0.040466 -0.006251 -0.011676 
summer -0.039215 0.012466 0.000837 0.024877 0.049530 0.008042 0.036848 -0.035494 -0.037222 0.014972 
Panel 0.016153 0.000768 0.011998 0.046228 0.040691 -0.038553 0.000800 -0.032056 -0.012925 -0.012454 
Action -0.012236 0.008585 0.007746 -0.037378 0.025215 -0.047311 -0.016170 -0.034979 -0.018850 0.000390 
Dyes -0.019806 0.018128 0.002415 -0.009581 -0.044283 0.050269 -0.038577 -0.009481 0.001985 0.049949 
Used -0.015972 -0.046340 -0.034787 0.035534 0.048473 0.026718 -0.027456 0.015546 0.031822 0.026332 
Foods -0.039747 0.027152 0.040061 0.025151 0.031699 0.007543 -0.043213 -0.004499 -0.019788 0.004607 
release -0.007110 0.010173 0.047082 -0.027498 0.042649 -0.008716 0.014303 0.032645 -0.040492 -0.004848 
Assad 0.043449 -0.036100 -0.030446 0.048913 -0.003218 0.049963 -0.040860 -0.048221 0.039161 0.022900 
appoints 0.007823 -0.034804 -0.017577 0.003610 0.034481 -0.035588 -0.048932 0.011174 0.048896 0.051475 
Adel -0.023271 -0.030194 0.003587 0.023300 -0.022494 -0.044369 0.009294 0.029804 0.032125 -0.016114 
Syria 0.015875 0.027741 -0.035575 -0.031125 0.047975 0.016309 0.006420 -0.011777 0.041648 0.030782 
8.8% 0.026275 0.034697 -0.029082 -0.029173 0.044089 0.003817 0.025102 -0.035865 0.035513 -0.008985 
Facebook's -0.000930 0.024737 0.027207 0.047523 -0.041646 -0.038686 0.018953 0.007523 -0.014898 -0.007833 
Fired -0.033429 -0.031189 0.035078 -0.025676 -0.007576 -0.023858 -0.045210 0.034688 -0.023368 0.010556 
Manager: 0.038766 0.017454 0.009224 -0.004153 0.040023 0.011465 -0.020045 -0.016941 0.035451 0.036551 
I 0.013296 -0.018352 -0.006547 0.031785 -0.032846 0.028280 -0.045631 -0.049242 0.030769 -0.024717 
Did 0.000906 -0.038086 0.004923 0.040907 -0.033072 0.028019 0.025773 0.017453 0.014111 -0.023998 
Nothing -0.029216 0.038843 0.004622 0.014545 -0.007029 0.033018 0.003421 0.011241 0.017406 -0.029986 
Wrong 0.005756 -0.039777 0.003222 -0.039121 0.041027 0.024542 -0.001963 0.026118 -0.047456 0.024640 
Jersey -0.006542 -0.001591 0.048548 0.042363 0.030298 -0.018929 0.007426 0.004070 -0.001480 0.050144 
District 0.032994 -0.022968 -0.044084 -0.025906 0.002229 -0.025558 -0.035997 -0.005926 -0.031395 0.034057 
Suspends -0.010561 -0.030028 -0.046993 -0.032663 -0.015650 0.008036 0.047823 0.032929 0.013759 -0.049707 
Drugmaker -0.025714 -0.020483 -0.007858 -0.008174 -0.020997 0.015751 -0.016761 0.048487 -0.042958 -0.027400 
scales -0.017426 0.016160 -0.019825 -0.024908 -0.041400 -0.033251 -0.022042 -0.002174 -0.007960 -0.003187 
sharp 0.022936 0.044700 0.047315 -0.025257 0.017278 0.035798 0.001584 0.029331 -0.047439 0.032651 
hike 0.013749 -0.026799 -0.000193 0.003726 0.002510 -0.016505 0.028339 0.006310 -0.038952 -0.034460 
price 0.048484 0.000691 0.011325 -0.030727 -0.011300 0.025130 0.042550 -0.000786 -0.019675 -0.002067 
pregnancy -0.016423 0.029780 0.017702 0.002986 0.005400 0.002245 0.045736 -0.002926 -0.019868 -0.039059 
Balenciaga 0.039756 0.043635 0.049311 0.017765 0.030024 -0.047820 -0.004674 0.009472 0.035512 0.009524 
Museum -0.036393 -0.035788 -0.002616 -0.041395 -0.011708 0.032975 -0.039239 0.014706 0.007385 -0.020698 
Mobile -0.008921 -0.020540 0.002702 -0.031911 0.014538 -0.048803 -0.023275 -0.009546 0.021594 -0.008086 
murder -0.048316 0.006723 -0.000894 -0.007068 0.029818 0.011597 -0.018550 0.023915 0.049954 -0.024579 
Chloe 0.029131 0.014959 -0.040245 -0.044587 -0.020596 0.044078 0.011145 0.032905 0.044341 0.017256 
Restaurant 0.028819 0.039072 -0.039603 -0.018612 -0.009333 -0.045645 0.009965 0.005158 -0.047335 0.043275 
hit -0.020061 -0.026147 -0.046062 0.033154 0.035051 0.009701 -0.006289 -0.034987 -0.000939 -0.025712 
Radiation -0.038533 0.017400 -0.021608 0.038796 -0.023526 0.017114 0.036022 -0.000537 0.022556 -0.010592 
Suns 0.036553 0.012936 -0.044974 -0.044702 -0.029769 0.007672 0.018554 -0.047436 -0.020594 -0.006157 
Clippers 0.022101 0.033255 -0.047914 -0.044813 0.027172 -0.049918 -0.041836 0.047878 0.007460 0.018487 
about -0.045235 0.031508 -0.003461 0.038911 0.023855 0.018477 0.043665 0.000387 0.012237 -0.035137 
Cuts -0.004544 0.028112 -0.011909 0.008468 -0.045985 0.021580 0.019652 0.014563 -0.021759 -0.005552 
As 0.048647 -0.047155 0.005852 0.028381 -0.045455 -0.044556 0.017592 0.027819 -0.010736 -0.047881 
Gmail 0.021311 0.009439 0.011953 -0.043409 0.021219 -0.016190 0.001333 0.039264 0.003917 0.043488 
Fools' -0.028267 0.012175 0.009801 0.028853 0.047615 -0.025286 -0.004802 0.028696 -0.036757 0.034778 
(video) -0.002845 0.026621 -0.015724 0.025544 -0.037285 -0.034289 -0.012712 -0.014746 0.023696 -0.007108 
Haley 0.036518 0.027443 -0.001454 -0.019592 -0.036876 0.008629 0.007159 0.024313 0.028681 0.002598 
Wife -0.040608 -0.021571 -0.028354 -0.026215 0.036699 0.032972 0.027694 -0.037241 0.047233 0.017457 
Be -0.040044 -0.042325 0.029388 0.006448 -0.020920 0.041798 -0.006934 -0.013170 0.002631 0.016050 
Yankees -0.011514 0.038269 -0.044862 -0.030159 -0.020421 -0.015865 -0.016216 -0.007406 -0.008178 0.025198 
hand -0.019824 -0.032728 0.026268 0.038330 -0.020329 0.015990 -0.018886 0.024000 0.014639 0.037472 
signals 0.015712 -0.032101 -0.017390 0.017327 -0.029893 0.016339 0.041103 -0.037052 0.005175 -0.009311 
radioactive 0.030910 -0.014021 -0.045226 -0.038032 -0.040466 0.014080 0.041918 0.047071 0.039174 0.024492 
cases -0.036180 -0.002954 0.027452 -0.035992 0.032517 0.045794 -0.007467 -0.033492 0.035820 0.028305 
disease -0.044849 -0.012129 -0.014384 0.034664 0.004456 -0.025624 0.038926 0.045877 -0.031066 -0.009018 
rally -0.044483 0.014988 -0.002422 0.002886 -0.012214 -0.021443 -0.023609 0.046175 0.046176 0.045697 
Verizon -0.004347 -0.039503 -0.036131 -0.013613 0.039581 -0.044307 0.024672 0.016859 -0.025275 -0.034237 
Android 0.028087 -0.017429 -0.017069 -0.040593 -0.028265 -0.039826 -0.009490 0.025208 -0.028505 -0.026367 
play 0.019208 0.036944 0.049924 -0.045147 0.038675 0.009035 -0.042836 0.004414 -0.044263 -0.042975 
""The -0.005335 0.010891 0.025560 0.005171 -0.021855 0.030390 0.017331 -0.033822 0.005090 0.013361 
Qwest -0.038007 -0.039311 -0.045082 0.009580 0.025056 0.008377 -0.010221 -0.024907 -0.000662 -0.022291 
wants 0.009681 0.031315 0.048185 0.023344 0.019148 0.012179 0.002305 -0.036460 0.041797 0.017631 
no 0.007863 0.024972 -0.027002 0.013773 0.016432 0.013202 0.028253 0.030903 -0.037693 0.042288 
From 0.003115 -0.009216 0.006585 0.027998 -0.010185 0.010097 0.016029 0.015148 -0.028723 0.020140 
worst 0.010545 -0.012597 -0.001590 -0.034384 -0.001951 -0.027729 0.034267 0.037444 0.040347 0.042071 
their -0.013808 -0.010576 -0.016093 0.018480 0.045089 0.006355 -0.009785 0.014037 -0.044956 0.008240 
fight -0.020147 -0.021405 0.018273 -0.040358 0.029598 0.014808 -0.024255 -0.029106 -0.027789 0.013927 
rival 0.038989 0.010249 0.003486 0.048498 -0.016522 0.030964 -0.021583 -0.047190 -0.011656 -0.034648 
guard -0.003174 -0.041848 0.010444 0.008119 -0.027943 -0.024289 -0.024803 -0.037108 0.028418 0.050615 
tried -0.033018 0.040155 0.025294 -0.036446 0.049277 -0.030632 0.045829 -0.025703 0.001137 -0.045602 
AL 0.010973 -0.006780 0.006106 -0.046782 -0.039805 0.030580 -0.013348 -0.049143 0.045268 0.033087 
line 0.002575 0.038123 -0.039756 -0.005014 0.044821 0.040545 -0.028601 0.014743 -0.010682 -0.040045 
Doesn't 0.012134 0.017892 -0.036075 0.021918 -0.046845 0.040128 0.016185 0.038792 0.028623 -0.001769 
charges 0.009620 -0.003935 -0.038042 0.031599 -0.035259 0.036024 -0.045757 0.028677 -0.015468 0.035206 
$40b -0.026128 -0.002792 0.022468 0.001767 0.015975 -0.025660 0.022969 0.004019 0.042911 -0.046449 
accused 0.033970 -0.020219 0.023922 0.001040 -0.049181 -0.035129 -0.038354 0.017581 0.041800 -0.016891 
Lady -0.041888 -0.026753 -0.003928 0.007232 -0.023139 -0.048424 -0.008611 -0.035957 -0.041491 -0.022167 
Gaga -0.040116 -0.025393 -0.028840 0.031979 0.029177 0.032560 -0.019860 -0.021479 0.021364 0.005642 
years 0.042373 0.007672 0.046309 0.024280 0.037290 0.046894 0.039714 0.030711 0.038317 0.049310 
True -0.032891 -0.019689 -0.023748 -0.036731 0.006256 0.042487 0.035171 0.001285 0.010273 0.043081 
May -0.000987 -0.036343 -0.024597 -0.047671 -0.041487 -0.032393 0.013668 0.020611 -0.035978 -0.017992 
UPDATE -0.027301 0.025141 0.022375 0.012505 -0.033123 0.013121 -0.029189 0.004557 0.002935 0.037083 
Air 0.032677 -0.001984 0.009065 0.030343 0.026297 0.008523 0.026314 0.014234 -0.034710 -0.016541 
goal -0.021112 -0.001033 -0.019418 -0.035340 -0.031588 0.031511 0.005173 0.017774 -0.047804 -0.043647 
EU -0.014281 -0.030751 0.004761 0.025034 0.048861 0.003317 0.015945 0.022786 -0.013801 0.008310 
4-3 0.038050 0.036018 0.044463 0.015035 -0.019212 0.033108 0.015286 0.010096 -0.015626 0.024835 
calls -0.015524 -0.036058 0.027195 0.019037 0.007217 -0.038538 0.030225 0.013260 0.048828 -0.046575 
Group 0.031491 -0.020683 0.019050 -0.039072 0.038300 0.008413 -0.009113 -0.010230 0.010796 0.023364 
police 0.016321 -0.030718 -0.024314 0.025348 0.002806 0.044345 -0.044813 -0.015334 0.006378 0.050605 
Fools -0.045944 -0.048962 0.027422 0.022500 -0.004994 0.019849 0.037685 -0.031552 -0.045700 -0.038966 
Day -0.024253 0.040077 -0.005336 0.016097 -0.033560 -0.011361 -0.041621 0.005967 -0.034281 -0.013650 
Blames 0.027826 -0.021125 -0.017219 -0.016107 -0.022566 0.001040 -0.004551 0.010516 -0.044941 -0.024703 
Suckiness 0.012596 0.030862 0.028535 -0.005772 -0.036636 -0.020958 -0.007861 -0.017143 0.044797 0.023816 
YouTube 0.034811 0.015660 0.016314 -0.019694 0.032698 -0.046801 0.036021 -0.013785 -0.021050 -0.019898 
Doctrine -0.017277 0.019956 0.037585 -0.037546 0.017097 -0.038199 -0.040100 -0.024871 -0.022152 0.047575 
suspect -0.026755 -0.031598 -0.024080 0.010166 0.011429 0.002021 -0.024746 -0.030137 0.035369 0.018340 
Department -0.030198 -0.045527 -0.048430 0.048350 0.027961 0.008196 -0.023152 -0.049092 -0.016930 0.036878 
speech 0.011386 0.046081 0.010896 -0.030219 -0.004095 0.022007 -0.010988 -0.002149 -0.002070 0.005307 
better -0.038787 0.027604 0.031651 0.007595 0.044667 -0.018914 0.005151 -0.026460 -0.027705 0.029711 
say 0.017573 -0.038697 0.013324 0.005829 0.049444 0.031802 0.002589 -0.035856 -0.039023 0.034968 
Federal 0.028490 0.036503 -0.014104 -0.016482 -0.004787 0.041671 -0.015343 0.021865 0.049108 0.010050 
NH 0.021946 -0.029274 -0.011957 0.010739 -0.045165 -0.038443 0.041941 -0.025442 -0.032587 0.012547 
suit -0.029965 0.049420 0.024113 -0.049388 0.044346 0.022210 0.024484 0.029151 -0.000012 0.044481 
child -0.009881 0.003611 0.000534 -0.045007 -0.001717 0.031171 -0.048717 0.011205 0.027315 -0.042883 
return -0.018188 0.016802 0.000040 -0.007511 -0.030574 0.047640 0.045873 -0.046751 0.002093 -0.002050 
Reisch -0.005567 -0.002539 -0.004819 0.002665 0.009994 0.047260 -0.003708 -0.017311 -0.005549 0.049396 
commander -0.025870 0.034747 -0.029229 0.008174 -0.000312 0.049187 -0.039685 -0.023153 0.021714 -0.005088 
National -0.009964 0.041033 0.043829 0.051201 -0.002484 0.051960 -0.014928 -0.033942 0.012835 0.029967 
calling 0.003467 0.022128 0.016790 -0.015632 -0.010170 0.029425 0.026882 0.011318 -0.035223 0.004491 
53 -0.034747 -0.009302 -0.030353 -0.018676 -0.013559 0.044269 -0.047972 -0.041218 0.007993 -0.008482 
live 0.006427 -0.028360 -0.029730 -0.037411 -0.046882 0.042186 -0.027510 0.017496 -0.029050 0.019900 
Israeli -0.048706 0.034008 0.043822 -0.013325 -0.001142 0.045938 -0.008577 -0.017463 -0.022635 0.035170 
Maple -0.011979 -0.034529 0.044084 0.042379 0.003125 0.004871 -0.026156 0.014580 -0.040328 -0.024938 
syrup -0.011783 0.017365 0.032589 0.042266 0.029173 -0.001327 0.049853 -0.016789 -0.015166 -0.049299 
Walk -0.019143 -0.017374 -0.024523 -0.000118 0.016548 0.025913 0.047596 -0.049120 -0.020807 0.039252 
drop 0.024134 -0.014565 -0.001880 0.017605 0.002061 -0.041337 0.039622 -0.012999 -0.003590 0.034016 
stocks -0.023301 0.003575 0.026574 0.007589 -0.039694 -0.017775 0.014563 0.042983 0.019549 0.026173 
arrest 0.015032 -0.002031 -0.048342 -0.031764 -0.026653 0.038574 0.028416 0.014566 -0.021663 0.043634 
site 0.005109 0.014452 -0.033640 0.029667 -0.009030 0.018259 -0.020831 0.026519 -0.042627 0.009500 
Continue 0.041959 0.021709 -0.045117 -0.018312 0.012414 -0.025356 0.020842 -0.021358 -0.025223 0.023216 
GOP 0.018720 -0.003646 0.033313 0.038383 0.017276 0.002871 0.019316 0.034006 -0.019121 0.047437 
House 0.030979 0.004114 0.012560 -0.005562 0.006727 -0.044760 -0.010943 -0.016897 -0.027614 0.043086 
budget 0.020292 -0.048542 -0.013828 0.016116 0.040095 0.026810 -0.034641 0.038290 -0.019728 0.049979 
Azarenka -0.018391 -0.022715 0.012183 -0.017251 0.030473 0.031925 -0.038613 -0.032890 -0.024389 0.021028 
Sharapova 0.014903 -0.030563 -0.019993 0.024614 -0.010294 -0.042610 -0.024574 0.019593 0.000632 -0.027759 
title -0.049400 0.019337 -0.021686 0.027041 0.006765 0.035889 -0.021835 -0.034677 0.005828 0.042947 
Plan 0.003421 -0.005025 0.039963 0.042328 -0.007574 -0.017671 -0.011885 -0.012118 -0.040333 -0.013784 
day 0.034391 -0.026364 -0.018208 0.022657 -0.032440 0.015277 0.002537 0.020882 0.033482 -0.041399 
Agreement 0.011845 0.015309 0.039232 0.046757 -0.047272 0.007790 0.017313 0.013221 -0.046447 -0.002064 
Boston 0.014269 -0.028085 0.022890 -0.000470 -0.013282 0.012657 0.044088 0.011978 -0.018285 -0.035483 
GM 0.001851 -0.015068 0.045661 -0.021717 -0.032914 -0.003059 -0.044378 0.035290 0.044153 0.043126 
leader -0.009458 0.001779 -0.026046 -0.018415 -0.000947 0.001242 -0.049105 -0.015476 -0.046383 -0.039996 
Your -0.013029 -0.006825 -0.040970 -0.038108 -0.007013 0.026597 0.033815 0.035268 0.000291 0.031463 
Says 0.022080 -0.014788 0.017957 -0.020294 -0.038411 -0.029649 0.029274 0.013538 -0.005505 0.039933 
likely 0.030190 -0.044953 0.025977 -0.014979 0.046252 -0.019771 -0.046425 0.046622 0.029729 -0.035560 
clean 0.017781 -0.040568 0.010936 0.002606 0.011128 0.021795 0.032214 0.039771 -0.048926 -0.025182 
Crimesider -0.034712 0.030935 -0.033498 0.031079 0.021830 -0.034708 -0.022428 0.047801 0.036812 0.035133 
leaves -0.046947 0.039126 -0.050945 0.041464 -0.004328 -0.022247 -0.034711 -0.025427 -0.000539 0.007101 
Vegetarians -0.043189 0.050052 0.005522 0.002497 -0.041698 0.021885 -0.030942 -0.043526 0.011398 0.052982 
lower 0.017994 0.003226 0.032431 -0.033073 -0.037345 0.046860 -0.045654 0.009192 -0.048257 -0.007677 
diabetes, -0.032399 -0.019969 -0.029760 -0.027273 0.031967 -0.029613 -0.030975 -0.014783 -0.043436 0.045965 
heart 0.011586 -0.029786 0.026157 0.016077 -0.037780 0.015610 -0.009307 0.024602 0.032445 0.024546 
risk 0.020292 -0.012572 0.025824 0.002465 0.009888 0.040883 -0.004186 0.041406 -0.021077 -0.024645 
Portugal 0.006783 -0.006101 -0.033235 -0.037342 -0.015584 0.022180 -0.006261 -0.049773 -0.035484 -0.033247 
paper -0.049887 0.035378 0.014119 0.005700 0.039862 -0.041415 -0.006066 -0.040350 -0.035119 0.017235 
steps -0.049518 0.018625 -0.046112 -0.047548 -0.023636 0.015750 -0.005988 0.043171 0.007551 -0.037772 
Vegas -0.018699 0.031248 0.010683 0.032297 0.036662 0.036350 -0.019016 -0.013784 0.012686 -0.042524 
medicine -0.023949 -0.011276 -0.009323 -0.036043 0.050405 -0.008809 -0.042018 -0.047409 0.034309 -0.006413 
4: 0.015537 -0.035966 -0.040114 -0.032086 -0.001474 -0.001058 -0.025188 0.009566 0.033783 -0.049938 
milk 0.035756 -0.007345 0.033505 0.008412 -0.023312 -0.003032 0.014206 -0.035270 0.017054 0.006862 
5 -0.032053 -0.038980 -0.004575 -0.004746 0.012499 0.015765 0.029531 -0.018784 -0.040636 -0.032793 
students -0.015865 0.010041 0.044386 -0.043793 -0.034376 -0.048899 0.044670 -0.005736 -0.035779 0.046441 
tests 0.016684 0.048005 -0.006969 -0.045506 0.034581 0.005175 -0.048840 -0.003362 0.040708 0.004192 
Metro 0.038178 -0.038554 0.032073 -0.038842 0.003449 -0.007480 0.044301 -0.029928 -0.010484 -0.032513 
kills 0.014808 0.038697 0.005073 -0.009594 0.047006 0.035890 -0.044966 0.011104 -0.008827 0.021239 
policeman -0.018798 -0.032472 0.023152 0.029593 -0.026273 0.013131 -0.023340 -0.033318 -0.008739 0.026632 
Weekend 0.038289 0.030960 -0.038689 0.037795 -0.041108 -0.022458 -0.025899 -0.014182 0.045022 -0.041466 
Check -0.031634 -0.017985 -0.002869 -0.019023 -0.011797 -0.034408 -0.005129 -0.050200 -0.000456 -0.046620 
cops -0.034286 -0.010432 -0.041920 -0.000185 -0.009426 -0.025435 0.031489 0.038689 -0.026666 0.030271 
spending 0.000147 -0.003596 -0.050403 0.036153 -0.037774 0.037302 0.039770 0.048946 0.048461 0.008493 
lifts 0.032896 0.003234 -0.028735 0.030266 0.024884 0.026639 -0.010447 0.012073 0.030741 -0.033789 
Review 0.016882 0.024802 -0.047056 0.028880 0.008064 0.022228 0.036771 0.023450 -0.032162 0.025148 
First 0.040409 0.047447 -0.023966 -0.035371 0.009959 -0.015855 0.043533 -0.015447 -0.049120 0.013785 
faces -0.030889 0.045875 -0.017802 0.040535 -0.033564 0.000853 -0.024417 -0.001391 -0.020131 0.043276 
investigation -0.010548 -0.041147 0.023515 -0.043006 0.019092 0.040658 0.017218 -0.011580 0.011627 0.011004 
stars 0.020365 -0.046890 -0.049223 0.001335 0.006176 0.016602 0.045591 -0.018982 0.031552 0.030684 
goes 0.036516 -0.044670 0.042350 -0.006024 0.027984 -0.026462 -0.042969 -0.011831 -0.018836 -0.030556 
Dolce 0.004398 0.040460 0.037462 0.039817 -0.007834 -0.041014 0.042631 -0.014504 -0.000612 0.000297 
Gabbana 0.022645 0.040711 -0.051578 -0.005713 -0.045811 0.046144 -0.041175 0.004387 -0.018301 -0.009230 
trial 0.042633 -0.045602 -0.001812 0.046559 0.037151 0.046430 -0.024213 -0.004731 0.042580 -0.026949 
&#xa3;1bn -0.026688 -0.008086 0.024406 -0.046685 0.002327 0.049941 0.049966 0.045902 -0.000714 0.034438 
thrown 0.042658 -0.031620 -0.023243 0.009878 0.032178 -0.043916 -0.015724 0.042780 -0.016952 -0.028147 
Palace 0.005107 -0.028146 -0.018269 0.008850 0.046591 0.003595 0.021365 -0.028431 0.022351 0.035707 
operation 0.043342 0.027839 0.003265 0.004617 -0.038025 0.039013 -0.003152 0.038572 0.027103 -0.043487 
Report -0.000559 0.012279 -0.006478 0.022535 -0.033407 0.028263 0.028015 0.043007 -0.002437 -0.011394 
Judge 0.005257 -0.042636 0.046787 -0.036213 0.035928 0.010907 -0.033646 -0.018069 0.036375 0.001154 
sentences 0.043660 -0.003721 0.007347 0.006555 -0.011549 0.004325 0.041104 0.031953 -0.015616 -0.031743 
hanging 0.029804 -0.008839 -0.041850 0.003407 -0.046660 0.009604 -0.038976 -0.020186 -0.041763 -0.009739 
app 0.031414 -0.004006 -0.011824 -0.023239 0.035716 -0.048936 -0.024619 -0.015097 0.020314 0.043531 
now 0.009159 0.010984 0.015976 0.025419 0.037709 -0.044838 -0.036546 -0.008905 -0.030679 -0.027966 
Phillies 0.015720 0.033553 0.042636 -0.038982 -0.020317 -0.044402 0.025750 -0.004669 0.025004 0.045593 
Reveals 0.049549 0.007220 0.031908 0.023273 -0.000988 0.018835 -0.047075 0.014715 0.030300 -0.036321 
Beauty 0.043585 -0.029777 0.012221 0.029968 -0.047783 -0.046333 -0.039066 0.036243 -0.017999 -0.036036 
Shows -0.017897 0.030635 -0.012645 -0.035347 -0.036172 0.008843 0.028370 0.042267 0.015159 -0.002177 
girls 0.037431 0.017256 0.018383 0.031667 0.049965 -0.043648 -0.048592 0.037286 -0.032420 -0.026768 
Rep. 0.008687 -0.042547 -0.031156 -0.030533 0.048997 0.036865 -0.033311 -0.002019 0.021544 0.031792 
Mexico 0.013777 0.046255 -0.035012 0.041026 -0.013888 -0.032906 -0.042036 -0.039029 -0.045705 -0.032788 
Officer 0.026030 -0.002106 0.029287 0.020188 -0.040554 -0.015462 -0.025321 -0.027331 -0.036499 -0.016584 
Ericsson 0.027494 -0.010869 0.016221 0.000314 -0.012624 0.051987 0.011634 -0.002509 -0.028547 0.034835 
stake 0.029491 -0.014176 -0.026932 -0.009159 0.026686 -0.008341 0.039453 0.049660 -0.022371 0.047483 
Buy -0.023739 0.043678 0.030484 0.004624 -0.028743 -0.030988 -0.033889 -0.028437 -0.039367 0.038232 
Police 0.010514 0.041601 0.038313 -0.019512 -0.038485 0.027562 -0.047958 -0.040663 -0.048019 0.050446 
Digits -0.002944 -0.039676 -0.023192 -0.031060 -0.015654 -0.036835 0.026565 0.023638 -0.004884 0.020880 
Many -0.033278 0.041225 -0.042384 0.018102 0.030474 0.001868 -0.040162 0.006640 -0.039183 0.000071 
multiple 0.029842 0.038394 -0.030155 -0.028968 -0.021140 -0.020905 -0.023929 0.008067 -0.018149 0.044139 
fathers 0.036509 -0.030823 -0.049677 -0.024065 -0.046562 -0.046177 -0.006218 -0.037942 -0.043257 -0.018115 
Fast-food 0.037872 0.044761 -0.043024 -0.032113 -0.011557 -0.030722 -0.047228 0.036735 0.042679 -0.016951 
+ 0.016833 0.043998 -0.038534 0.015005 -0.044075 0.002790 -0.017478 0.046364 0.013616 -0.035934 
coffee -0.007736 -0.039847 0.037416 -0.033980 -0.003967 -0.036803 -0.015431 -0.002654 0.006639 0.033324 
= 0.011198 0.032093 -0.033987 0.005748 -0.013521 -0.047655 -0.026814 -0.004087 -0.031483 0.004500 
soaring 0.009970 0.047586 0.014248 0.009004 0.041918 -0.005952 0.012112 -0.007687 0.003902 -0.019941 
blood 0.014119 0.003043 0.010297 -0.031161 0.048901 -0.036890 -0.013734 -0.007789 -0.044768 0.018516 
sugar 0.004108 -0.047661 -0.010584 -0.032134 -0.029510 -0.038430 0.004174 -0.013188 0.003305 0.032676 
